digraph Tree {
node [shape=box] ;
0 [label="X[3] <= 0.8\nentropy = 1.585\nsamples = 150\nvalue = [50, 50, 50]"] ;
1 [label="entropy = 0.0\nsamples = 50\nvalue = [50, 0, 0]"] ;
0 -> 1 [labeldistance=2.5, labelangle=45, headlabel="True"] ;
2 [label="X[0] <= 6.15\nentropy = 1.0\nsamples = 100\nvalue = [0, 50, 50]"] ;
0 -> 2 [labeldistance=2.5, labelangle=-45, headlabel="False"] ;
3 [label="X[3] <= 1.65\nentropy = 0.8024\nsamples = 45\nvalue = [0, 34, 11]"] ;
2 -> 3 ;
4 [label="X[2] <= 4.85\nentropy = 0.316\nsamples = 35\nvalue = [0, 33, 2]"] ;
3 -> 4 ;
5 [label="entropy = 0.0\nsamples = 32\nvalue = [0, 32, 0]"] ;
4 -> 5 ;
6 [label="X[2] <= 5.05\nentropy = 0.9183\nsamples = 3\nvalue = [0, 1, 2]"] ;
4 -> 6 ;
7 [label="entropy = 0.0\nsamples = 1\nvalue = [0, 0, 1]"] ;
6 -> 7 ;
8 [label="X[3] <= 1.5\nentropy = 1.0\nsamples = 2\nvalue = [0, 1, 1]"] ;
6 -> 8 ;
9 [label="entropy = 0.0\nsamples = 1\nvalue = [0, 0, 1]"] ;
8 -> 9 ;
10 [label="entropy = 0.0\nsamples = 1\nvalue = [0, 1, 0]"] ;
8 -> 10 ;
11 [label="X[2] <= 4.85\nentropy = 0.469\nsamples = 10\nvalue = [0, 1, 9]"] ;
3 -> 11 ;
12 [label="X[3] <= 1.75\nentropy = 0.9183\nsamples = 3\nvalue = [0, 1, 2]"] ;
11 -> 12 ;
13 [label="entropy = 0.0\nsamples = 1\nvalue = [0, 0, 1]"] ;
12 -> 13 ;
14 [label="X[1] <= 3.1\nentropy = 1.0\nsamples = 2\nvalue = [0, 1, 1]"] ;
12 -> 14 ;
15 [label="entropy = 0.0\nsamples = 1\nvalue = [0, 0, 1]"] ;
14 -> 15 ;
16 [label="entropy = 0.0\nsamples = 1\nvalue = [0, 1, 0]"] ;
14 -> 16 ;
17 [label="entropy = 0.0\nsamples = 7\nvalue = [0, 0, 7]"] ;
11 -> 17 ;
18 [label="X[3] <= 1.75\nentropy = 0.8699\nsamples = 55\nvalue = [0, 16, 39]"] ;
2 -> 18 ;
19 [label="X[2] <= 5.05\nentropy = 0.5033\nsamples = 18\nvalue = [0, 16, 2]"] ;
18 -> 19 ;
20 [label="entropy = 0.0\nsamples = 16\nvalue = [0, 16, 0]"] ;
19 -> 20 ;
21 [label="entropy = 0.0\nsamples = 2\nvalue = [0, 0, 2]"] ;
19 -> 21 ;
22 [label="entropy = 0.0\nsamples = 37\nvalue = [0, 0, 37]"] ;
18 -> 22 ;
}